{
  "layers": [
    {
      "neurons": [
        {
          "weights": [
            0.0041854456,
            -0.02512726,
            0.021110427,
            -0.009988587,
            -0.045884423,
            -0.0070932545,
            0.0012824535,
            -0.013242047,
            0.0477856,
            0.018741112,
            -0.0059613883,
            -0.019814663,
            0.034505647,
            0.04844629,
            -0.04182312,
            -0.03105863,
            0.037672963,
            0.03809462,
            0.0042487755,
            0.050154943,
            -0.027162839,
            0.039879505,
            0.016650844,
            0.022785429,
            0.03901114,
            -0.03686902,
            0.006994158,
            -0.031929836,
            -0.017891109,
            -0.028119285,
            -0.036654644,
            -0.0441795,
            0.020305049,
            0.04442234,
            -0.038651094,
            -0.022432888,
            0.039471358,
            -0.029405346,
            0.030761873,
            -0.011724938,
            -0.0067342417,
            -0.0007464419,
            0.020036202,
            0.032356985,
            -0.0092559345,
            -0.019875392,
            0.04270068,
            -0.048879437,
            -0.042180806,
            0.011415597,
            0.015565446,
            0.0040227845,
            -0.006621424,
            -0.046318144,
            0.051135737,
            -0.029460706,
            0.008556627,
            0.0014968924,
            -0.037766546,
            0.040180895,
            -0.01521107,
            0.045120254,
            0.021226553,
            -0.04697478,
            0.024039028,
            -0.0011650347,
            0.032347444,
            0.01759561,
            0.023547914,
            -0.04293329,
            -0.012538357,
            -0.05721236,
            -0.04243415,
            0.03449029,
            0.030485569,
            -0.02859291,
            -0.026194029,
            0.022497972,
            0.029423993,
            -0.05044538,
            -0.04993304,
            0.011670633,
            0.012578476,
            0.027040016,
            -0.038339555,
            0.0026938654,
            -0.009490912,
            -0.033979066,
            0.018903757,
            -0.051333528,
            0.043605637,
            -0.03884137,
            -0.00047246757,
            0.029403599,
            -0.0020712272,
            0.045436583,
            0.011856321,
            -0.030614607,
            -0.04859263,
            0.037468057,
            -0.013886806,
            0.036772553,
            -0.036901917,
            -0.038364,
            0.031272665,
            -0.015037564,
            -0.059632022,
            -0.026386226,
            -0.0042608296,
            0.007784731,
            -0.045663334,
            0.050731983,
            -0.042557362,
            -0.02880113,
            0.035343263,
            0.016538873,
            0.041025225,
            0.03202462,
            0.024813231,
            0.026079508,
            -0.045800272,
            0.0118962135,
            0.003497706,
            0.044145115,
            -0.0120223155,
            -0.008673948,
            0.047612716,
            -0.025311159,
            -0.0036456215,
            -0.029060591,
            0.0494187,
            -0.019616976,
            0.041309107,
            0.030211298,
            0.008835028,
            0.009856696,
            0.025852758,
            0.0044452013,
            0.031336877,
            -0.025697254,
            -0.03383211,
            -0.023706542,
            -0.0011629655,
            -0.03936805,
            -0.0123401275,
            0.043301642,
            -0.03177747,
            0.033123203,
            -0.010277262,
            -0.023056965,
            -0.0023853208,
            0.026538722,
            0.0221693,
            0.015966568,
            -0.015402261,
            0.041227058,
            0.008476534,
            0.0041910075,
            0.06575342,
            0.038527444,
            -0.018900396,
            -0.022687756,
            -0.0019168326,
            -0.047364473,
            -0.009418728,
            -0.025123267,
            -0.012558563,
            -0.011379315,
            0.039567854,
            0.016680285,
            -0.03557951,
            -0.00558171,
            0.046485227,
            0.02707906,
            -0.0019075617,
            0.03803551,
            0.027411258,
            0.013218091,
            -0.047960803,
            0.022166852,
            -0.02631975,
            0.006134059,
            0.02407197,
            -0.018345445,
            -0.046359327,
            -0.013918262,
            0.06079234,
            0.053857774,
            0.037791036,
            0.051208302,
            0.042910136,
            0.019110702,
            -0.018161425,
            0.040530924,
            0.008415416,
            0.0069312504,
            0.02864168,
            -0.0061909463,
            0.05177569,
            0.051899955,
            -0.0018908031,
            -0.021372734,
            0.04044918,
            -0.0028454615,
            0.015527805,
            -0.010175075,
            0.013246854,
            0.043512672,
            0.0025749188,
            -0.0054215933,
            -0.055744763,
            0.018901007,
            -0.035026003,
            0.011898239,
            0.044743158,
            0.023358429,
            0.02885097,
            0.04931645,
            -0.021576654,
            0.00003314949,
            -0.026171912,
            0.0015222995,
            -0.044608124,
            -0.0058258893,
            0.0112385135,
            -0.04523912,
            -0.009178453,
            -0.007800439,
            0.011842101,
            0.049030293,
            -0.035742637,
            -0.044957757,
            -0.037584938,
            -0.0323391,
            0.0075449417,
            0.015532634,
            0.016814163,
            -0.039544374,
            0.020180963,
            -0.0077214865,
            -0.011043922,
            -0.019070579,
            0.01956261,
            0.010549626,
            0.060786564,
            -0.022630932,
            0.0379078,
            0.044795506,
            -0.063951015,
            0.0072461665,
            -0.0065109334,
            -0.029867059,
            -0.03884802,
            -0.004603167,
            0.008140741,
            -0.024731006,
            -0.03710693,
            -0.027255028,
            -0.028743418,
            -0.050918248,
            0.013904009,
            -0.031801715,
            -0.024348099,
            -0.04753475,
            -0.009297293,
            0.0007306052,
            -0.00842398,
            -0.03922865,
            0.004154784,
            0.05091479,
            0.061904266,
            0.08777471,
            0.05742405,
            0.02859299,
            -0.0017802244,
            -0.0036360652,
            -0.04309221,
            -0.05803143,
            -0.033886984,
            -0.026722984,
            0.021997169,
            -0.026294744,
            0.030035617,
            0.04444469,
            -0.012844729,
            -0.039648335,
            -0.008185087,
            -0.048522744,
            -0.04945377,
            0.0407276,
            -0.03328468,
            0.031032251,
            -0.0025117954,
            -0.011655148,
            -0.051501907,
            -0.055616073,
            -0.078229755,
            0.049087383,
            0.069544025,
            0.033031072,
            0.0684632,
            0.051112562,
            0.0059753004,
            0.023075754,
            0.04396824,
            -0.05343748,
            0.005648006,
            0.04941707,
            -0.015156479,
            -0.012014609,
            -0.025817791,
            -0.021291269,
            0.0037926794,
            -0.020735636,
            0.032062512,
            0.011863071,
            -0.04325577,
            0.0076485313,
            -0.032636106,
            0.0022349274,
            -0.066721626,
            -0.047731996,
            -0.030903747,
            -0.059973203,
            -0.10827068,
            -0.034465525,
            0.07337256,
            0.082720295,
            -0.015889434,
            0.049143244,
            0.06480301,
            -0.012588726,
            0.03780759,
            -0.04125673,
            -0.021985056,
            -0.025881698,
            0.042827774,
            -0.0010116178,
            0.035863932,
            -0.00035874962,
            0.032350663,
            -0.047009945,
            0.042091954,
            -0.015089365,
            0.027004458,
            -0.0077556744,
            -0.042005293,
            -0.051452998,
            -0.032475498,
            -0.030611575,
            -0.07019667,
            -0.09910486,
            -0.11715058,
            -0.019798553,
            0.013882424,
            -0.0028136107,
            0.018365907,
            -0.025847368,
            0.01897775,
            0.002755869,
            0.007856457,
            0.04343454,
            0.025496686,
            0.0037635404,
            -0.013202079,
            -0.02703093,
            -0.009190727,
            0.033448398,
            -0.043409113,
            0.034268692,
            -0.0015062279,
            -0.011514553,
            0.010899384,
            -0.037054975,
            0.006266246,
            -0.02371319,
            -0.0026472928,
            -0.04129895,
            -0.106259026,
            -0.13377555,
            -0.08608817,
            -0.07845134,
            0.048570916,
            -0.0088722715,
            -0.0031106498,
            0.04283281,
            0.034610312,
            -0.011560057,
            0.002920564,
            -0.006684749,
            -0.02128432,
            -0.034312543,
            -0.026449744,
            -0.028662149,
            -0.012301535,
            -0.004297345,
            0.011125947,
            0.013953071,
            0.06405559,
            0.056376606,
            0.04105923,
            -0.020871352,
            -0.048879325,
            -0.011896492,
            -0.002607027,
            -0.021015229,
            -0.08531435,
            -0.077292114,
            -0.07508713,
            -0.039206572,
            -0.0008301565,
            0.013834498,
            -0.013397289,
            0.024149258,
            0.02338927,
            0.0016408473,
            0.04910478,
            0.010812866,
            0.044392917,
            0.030436594,
            0.0023538165,
            -0.01873821,
            0.00913492,
            0.03270326,
            0.01918634,
            0.022046538,
            0.04609346,
            0.019006234,
            -0.026139686,
            0.010695452,
            -0.039039243,
            -0.007477449,
            -0.023047507,
            -0.07396067,
            -0.084394835,
            -0.07676414,
            -0.058984544,
            0.015757198,
            -0.014030787,
            -0.006710317,
            0.04289207,
            -0.040943153,
            -0.009299411,
            -0.0038939146,
            0.047333356,
            0.014762854,
            0.0022890596,
            0.007839909,
            0.026071116,
            -0.008975845,
            -0.035960812,
            -0.01697093,
            0.049455468,
            0.00006609047,
            0.011677908,
            -0.0180978,
            -0.051949997,
            0.01473209,
            0.04075549,
            -0.060459968,
            -0.050610162,
            -0.048802525,
            -0.085739695,
            -0.033386793,
            -0.045631498,
            0.010922039,
            0.030928584,
            0.033805456,
            0.03426183,
            -0.0023596287,
            0.008974366,
            -0.024750791,
            -0.041811917,
            0.016223555,
            0.04586216,
            -0.0060223755,
            -0.00032646582,
            -0.015928958,
            -0.039151102,
            -0.040595252,
            0.012710135,
            0.033965245,
            0.045358352,
            0.011680592,
            0.029259617,
            0.03695847,
            -0.0062168026,
            0.029145606,
            0.0069230525,
            -0.07192359,
            -0.07954893,
            -0.07128972,
            -0.006488941,
            0.07359438,
            0.012721018,
            -0.0038149888,
            0.01266983,
            0.038909607,
            -0.0027868103,
            0.03760148,
            -0.039392736,
            -0.046010636,
            -0.044928644,
            0.041528303,
            -0.010333078,
            0.029166317,
            0.012318116,
            0.042800818,
            -0.030917488,
            0.010457419,
            0.046410076,
            -0.030501233,
            0.053595826,
            0.050175697,
            0.026896127,
            -0.014867751,
            -0.04188462,
            -0.037465125,
            0.0061925934,
            -0.0068987226,
            -0.0075553865,
            0.060866512,
            0.03290999,
            0.021864142,
            0.0020919086,
            -0.003198661,
            0.012569257,
            -0.021542799,
            -0.016301768,
            -0.014307231,
            -0.043523133,
            0.00025169717,
            0.008131016,
            -0.0066281827,
            0.036144182,
            -0.045112073,
            0.04460488,
            -0.011103293,
            0.0050068153,
            0.036537506,
            0.02205331,
            -0.010263221,
            0.030180005,
            0.016164659,
            -0.027419206,
            -0.032270767,
            0.019080663,
            0.002903116,
            -0.0037811014,
            0.018469464,
            -0.03696489,
            -0.019486617,
            -0.00426191,
            -0.020727703,
            0.013612732,
            0.016703824,
            -0.034216914,
            0.052445076,
            -0.03210684,
            0.02228263,
            0.04912084,
            -0.017141135,
            0.0464201,
            -0.039420605,
            0.037752677,
            -0.011110686,
            0.045833394,
            -0.0070609283,
            0.019875731,
            -0.021159071,
            0.03534303,
            0.036446404,
            -0.033020165,
            0.01875987,
            -0.05189341,
            -0.041441727,
            -0.01193423,
            0.011601715,
            0.0034984816,
            -0.021610064,
            -0.0362038,
            -0.014796792,
            -0.049823675,
            0.04737149,
            -0.009396809,
            -0.028802633,
            -0.027672743,
            -0.04109558,
            0.0070275664,
            -0.0091712205,
            0.04077424,
            -0.013487587,
            -0.00033828733,
            0.04100907,
            -0.037369423,
            -0.0118122045,
            0.038202718,
            -0.021975411,
            0.016703106,
            0.0318399,
            -0.022052499,
            -0.021309525,
            -0.04622874,
            -0.01089674,
            0.018505808,
            -0.0048429715,
            0.01964207,
            0.006135535,
            -0.014082416,
            0.0077955727,
            0.025574852,
            -0.034452498,
            -0.016824484,
            -0.04213913,
            0.044149365,
            0.019289194,
            -0.008055996,
            0.004498647,
            0.026723616,
            -0.019171415,
            -0.0067006596,
            0.026216669,
            0.030885171,
            0.014508479,
            -0.02576207,
            0.0057822755,
            -0.021709012,
            -0.0090924855,
            -0.016259268,
            0.025628516,
            0.019963512,
            -0.06081146,
            -0.047281846,
            0.021717144,
            0.022357957,
            0.023993298,
            -0.011417878,
            -0.042444568,
            0.019349713,
            0.0400885,
            0.03852742,
            -0.046346612,
            -0.027670898,
            0.009217148,
            0.016065564,
            -0.013653602,
            0.036677282,
            0.04064712,
            0.043098763,
            0.00802867,
            -0.020408906,
            -0.013459763,
            0.039911322,
            0.0072370237,
            0.0492794,
            -0.025776528,
            -0.0245562,
            0.034666907,
            0.0015421681,
            -0.041757807,
            0.016315553,
            -0.021325137,
            -0.04533738,
            -0.01228587,
            0.039238054,
            0.014514466,
            -0.023477059,
            0.025783738,
            -0.045318156,
            0.009726821,
            0.020986723,
            0.00044506416,
            -0.014113646,
            0.008193962,
            0.02573732,
            -0.04641872,
            0.046620715,
            -0.043044258,
            -0.032142647,
            -0.03386953,
            0.025013244,
            -0.057694968,
            0.022700982,
            -0.045637716,
            0.0014679707,
            0.0064520226,
            -0.030371105,
            0.02831385,
            -0.0073935115,
            0.032198604,
            -0.022971693,
            0.03546725,
            -0.0034084541,
            -0.024747865,
            -0.02065347,
            0.031720944,
            0.005828718,
            -0.021334775,
            -0.029371941,
            0.023447637,
            -0.014694374,
            0.039247554,
            -0.012431685,
            0.006862236,
            0.05105587,
            -0.028409507,
            0.045195796,
            -0.0018829722,
            -0.055852707,
            -0.026442956,
            0.025490524,
            -0.04656902,
            0.009932458,
            0.025610661,
            -0.056773342,
            -0.033407543,
            0.024872825,
            -0.06296416,
            0.03647057,
            -0.033633318,
            -0.022914892,
            -0.013260373,
            0.04987327,
            0.0059290933,
            -0.03449145,
            -0.0136831775,
            0.049935523,
            -0.0016818568,
            -0.008761942,
            -0.01088509,
            0.0041291416,
            0.02245583,
            0.037986558,
            0.0435976,
            0.024838706,
            -0.028629916,
            0.0016171312,
            -0.011194853,
            -0.017021015,
            0.024126831,
            0.024895262,
            0.018764002,
            0.03745857,
            0.044583473,
            0.028334146,
            -0.0428872,
            0.0018458705,
            -0.0136240795
          ],
          "bias": 0.0023191674,
          "output": 0.28484556,
          "delta": -0.085803054
        },
        {
          "weights": [
            0.045436684,
            -0.008952562,
            -0.02259581,
            -0.03199318,
            -0.038675293,
            0.01780926,
            0.03644139,
            0.009545594,
            -0.03888813,
            -0.003952883,
            -0.014512617,
            -0.043468796,
            -0.0033364058,
            -0.022400506,
            0.041003708,
            0.024198467,
            0.029381584,
            -0.00912733,
            -0.030119197,
            -0.03328388,
            -0.04798919,
            0.009231985,
            -0.029915731,
            -0.0011481121,
            -0.013818271,
            0.0069799796,
            0.029048745,
            0.007356465,
            0.017775048,
            -0.024634274,
            0.01760475,
            0.03834856,
            0.02789719,
            -0.043377712,
            -0.03487315,
            0.024828484,
            0.010854265,
            0.049237072,
            -0.028357036,
            0.021088762,
            -0.05081871,
            -0.02460582,
            0.011259039,
            -0.0020452526,
            -0.047973473,
            -0.009846017,
            0.028019505,
            -0.015046328,
            0.019553823,
            -0.0038740027,
            -0.03181664,
            0.026182301,
            0.04555877,
            0.02000061,
            -0.039812215,
            -0.025707936,
            -0.010633789,
            0.032421995,
            -0.021028105,
            0.036768932,
            -0.033114046,
            0.042812187,
            -0.029460087,
            -0.00046152898,
            -0.004274531,
            -0.0036110426,
            0.0068277465,
            0.028085962,
            0.04224939,
            -0.032435466,
            0.0025585226,
            -0.03725318,
            0.040665124,
            0.00847608,
            -0.008024875,
            0.040722158,
            -0.02164033,
            -0.049018584,
            0.034268245,
            -0.03341173,
            0.03810299,
            0.021141447,
            0.026570078,
            -0.01246652,
            0.031569142,
            0.0069536828,
            0.008922624,
            0.006714734,
            -0.024738168,
            -0.0043486264,
            -0.024699707,
            -0.00037341294,
            0.0034532049,
            -0.039065007,
            0.011681559,
            -0.042211015,
            0.006413385,
            0.020985082,
            0.0116921,
            -0.03707063,
            0.042444225,
            0.026875181,
            -0.02404717,
            0.008597785,
            0.042328257,
            -0.048390795,
            0.038349725,
            -0.032242417,
            0.0333525,
            0.0057348963,
            0.0240991,
            0.0081267245,
            -0.018893626,
            -0.020239186,
            0.010907915,
            0.008732907,
            -0.018450813,
            -0.04279576,
            0.008221226,
            0.016513437,
            -0.045195412,
            -0.04730621,
            0.00890575,
            0.036324877,
            0.033973023,
            -0.002371395,
            -0.04384088,
            -0.047091212,
            0.007962966,
            0.021466235,
            0.017362548,
            -0.023748705,
            0.027940499,
            -0.01119851,
            0.04800006,
            -0.04809174,
            -0.044024106,
            -0.0064480263,
            -0.031825434,
            -0.028537227,
            0.029371623,
            0.038139354,
            0.05130758,
            -0.0042328364,
            0.0143096605,
            -0.022003308,
            -0.0048249066,
            0.04441286,
            0.039320458,
            0.0143425185,
            -0.039047793,
            -0.050292738,
            -0.010864491,
            -0.02735836,
            -0.03371682,
            0.009633104,
            0.01250495,
            0.0142866885,
            -0.015826285,
            -0.000751775,
            -0.00035477628,
            0.032499857,
            0.008652089,
            -0.05244772,
            -0.010484915,
            -0.032808684,
            0.043320503,
            0.05000758,
            0.04778229,
            0.035059284,
            -0.011738881,
            -0.0045765853,
            -0.032882232,
            -0.0137361735,
            -0.008910661,
            -0.01477141,
            -0.0060546845,
            0.025940746,
            0.038141765,
            -0.013822316,
            -0.029181963,
            0.05992634,
            0.043814078,
            0.041627996,
            0.018102944,
            -0.048765153,
            -0.044813223,
            -0.042615633,
            0.030375049,
            0.0030714183,
            -0.038454693,
            0.012548905,
            -0.028035592,
            -0.050796073,
            -0.009425263,
            0.017746497,
            0.0328775,
            -0.012736345,
            0.027927522,
            0.042699415,
            0.051234238,
            0.0029198916,
            0.020023592,
            -0.039412268,
            0.025581056,
            -0.01650535,
            0.017692603,
            0.045635834,
            0.049322184,
            -0.034764472,
            0.047980454,
            0.012518619,
            0.03569734,
            0.029382538,
            0.020043382,
            -0.026599104,
            -0.009947703,
            -0.030327335,
            0.00637979,
            -0.027554616,
            -0.0015547051,
            -0.019038703,
            -0.043419603,
            0.032599587,
            0.037135154,
            -0.0039850073,
            0.007836681,
            0.039751384,
            0.045391552,
            0.04298426,
            0.013290802,
            0.034969345,
            0.05168119,
            0.036000814,
            0.02821734,
            -0.0010733355,
            0.018249724,
            -0.022298004,
            0.05172669,
            0.0006617904,
            -0.04027509,
            -0.034224328,
            0.024678715,
            0.017517716,
            -0.049691323,
            0.037099145,
            0.011380232,
            -0.009191081,
            0.046121385,
            -0.02306828,
            0.05027867,
            0.03214573,
            0.020071032,
            0.016162965,
            -0.015310797,
            -0.014751228,
            0.018151157,
            -0.0058430075,
            -0.018085597,
            0.0053878212,
            -0.00005415658,
            0.00914183,
            -0.049982835,
            -0.02434937,
            -0.013821783,
            0.003933112,
            0.062523246,
            0.06872785,
            -0.019622149,
            -0.028144132,
            0.023694657,
            -0.004520708,
            -0.033052456,
            -0.034610216,
            0.014286973,
            0.022589734,
            -0.00973052,
            -0.042434055,
            0.04218172,
            0.049198512,
            0.022648808,
            -0.038537834,
            -0.024313541,
            -0.004422216,
            -0.029407464,
            0.03729941,
            -0.042845476,
            0.041439563,
            0.04607179,
            0.021301115,
            -0.036067467,
            -0.02494331,
            0.06739359,
            0.014655815,
            0.044139292,
            -0.035909913,
            0.03880761,
            0.039363105,
            -0.052084044,
            -0.04889725,
            -0.007867766,
            -0.0424217,
            0.04036593,
            0.04523012,
            -0.0043523973,
            -0.0033248838,
            -0.047163878,
            -0.0025408184,
            -0.047069814,
            -0.011693956,
            -0.0066288086,
            0.0006236345,
            0.024032436,
            0.023746261,
            -0.0013331828,
            -0.060797125,
            -0.07423234,
            -0.0017257793,
            0.018477248,
            -0.014043971,
            -0.006917438,
            0.07302359,
            -0.03384507,
            -0.043004483,
            -0.051720195,
            -0.016877528,
            -0.01159008,
            -0.050192304,
            -0.027179096,
            -0.04849216,
            0.02637546,
            0.051439114,
            -0.051479407,
            -0.03562226,
            0.027178457,
            -0.007085012,
            -0.044902258,
            -0.008160469,
            0.038495928,
            0.04062884,
            0.02171594,
            -0.05997515,
            0.031988285,
            -0.062406987,
            -0.06495585,
            -0.0038482735,
            -0.016255353,
            0.05124992,
            0.012030909,
            -0.025875265,
            0.005010869,
            -0.021225834,
            0.014567125,
            -0.015160743,
            -0.015082241,
            0.022768361,
            0.045143757,
            0.049712762,
            0.02493611,
            -0.0018061,
            0.015731718,
            -0.042391688,
            0.023877464,
            -0.027171722,
            -0.05046395,
            -0.030752655,
            -0.043508407,
            0.033554886,
            -0.036243178,
            -0.05424785,
            -0.06048022,
            -0.04107425,
            -0.046604827,
            0.044812866,
            0.001575433,
            -0.020586831,
            -0.010526915,
            0.02464517,
            0.047680575,
            0.010130036,
            0.0013323483,
            -0.045954198,
            -0.04493577,
            0.025962384,
            -0.033232726,
            -0.040115796,
            0.049738016,
            -0.025787285,
            0.020570807,
            0.014878141,
            0.033118267,
            -0.013635179,
            -0.03136431,
            -0.03333031,
            -0.030273542,
            0.0026669877,
            0.030088827,
            0.026866099,
            -0.054841906,
            -0.033584688,
            -0.0035858916,
            0.0492342,
            -0.021040622,
            -0.019528884,
            0.042387854,
            -0.028384315,
            0.005207443,
            -0.024651308,
            -0.02806252,
            -0.035655912,
            0.005256155,
            -0.05207727,
            -0.027095495,
            0.045055795,
            0.049006104,
            -0.001265681,
            -0.019326884,
            -0.004803355,
            -0.0090552885,
            0.025996381,
            0.00610986,
            -0.017067226,
            -0.048544105,
            -0.019503627,
            -0.045335494,
            -0.0122844195,
            -0.017393202,
            0.023965139,
            0.005121856,
            0.005648579,
            0.061201412,
            -0.0188924,
            0.01044856,
            0.059244316,
            0.044009443,
            0.048362557,
            0.033830453,
            -0.0037392688,
            0.0014107402,
            0.034270186,
            -0.034012873,
            -0.010279063,
            -0.016490344,
            0.033232212,
            0.014003699,
            -0.042058077,
            -0.032417104,
            -0.051070496,
            0.020946596,
            -0.028984878,
            0.010335187,
            -0.012554895,
            -0.012356223,
            0.049028903,
            -0.014838965,
            0.044376034,
            0.051984478,
            -0.026339067,
            0.043950018,
            0.0188352,
            0.032562643,
            0.0009381724,
            0.02013131,
            -0.028915636,
            0.015355418,
            -0.019499995,
            -0.0040824255,
            -0.03393151,
            0.012901542,
            0.03862701,
            -0.006856487,
            0.009954096,
            -0.012130827,
            -0.033638377,
            -0.04551106,
            -0.024667118,
            -0.037545808,
            0.0016002435,
            0.030376552,
            0.040254246,
            0.03743785,
            -0.031185051,
            -0.02241003,
            0.04770996,
            0.05705966,
            0.038093865,
            -0.045755226,
            -0.048387133,
            0.024957595,
            0.030772764,
            -0.033640344,
            0.021405382,
            0.04256045,
            -0.011475946,
            0.015343159,
            -0.021606302,
            0.031750556,
            0.033991255,
            -0.023802886,
            -0.003130429,
            -0.042146854,
            0.0128727,
            -0.03075185,
            -0.013389734,
            0.01743501,
            0.01518545,
            -0.0206887,
            0.027350696,
            -0.018994886,
            0.0045456886,
            0.017765783,
            -0.030047996,
            0.02275793,
            -0.031187326,
            0.019671833,
            -0.053299654,
            -0.052310947,
            -0.0030126828,
            -0.054410603,
            -0.064717054,
            -0.03381373,
            0.037988216,
            -0.023933915,
            0.050018113,
            -0.021955088,
            0.0069690053,
            0.01801679,
            0.044778813,
            -0.050278313,
            -0.029078944,
            -0.037373714,
            -0.016306924,
            0.007107012,
            -0.004939967,
            -0.050975792,
            0.035234336,
            0.005816843,
            0.014480143,
            0.014697365,
            -0.016672041,
            0.027675414,
            -0.03030793,
            0.014274075,
            -0.030131161,
            0.0025735241,
            -0.0057605235,
            -0.017012516,
            0.002384247,
            -0.016733555,
            0.018335596,
            0.04098949,
            -0.013837704,
            0.047149915,
            0.013017972,
            0.051031303,
            0.04871886,
            -0.03289157,
            -0.04688509,
            -0.035375282,
            -0.040997364,
            -0.04103506,
            0.04553673,
            -0.03233772,
            -0.01476566,
            -0.022524247,
            -0.03603456,
            0.02711414,
            -0.01839756,
            -0.039561525,
            0.0018771857,
            0.0010581047,
            -0.02945421,
            0.0055921883,
            -0.007575852,
            0.005361174,
            -0.02655824,
            0.014091379,
            -0.048363402,
            0.057208322,
            0.048541285,
            0.0028203784,
            0.0580255,
            -0.0059910365,
            -0.03508737,
            -0.039246727,
            -0.049223907,
            -0.016835772,
            -0.02069705,
            -0.03402119,
            -0.03967859,
            -0.040085193,
            -0.04116162,
            0.020982472,
            -0.036546115,
            0.029562058,
            -0.04592456,
            0.0009248915,
            0.01915255,
            -0.0127285095,
            -0.061573397,
            -0.0386641,
            -0.026106667,
            -0.01024232,
            -0.00026848097,
            -0.0055615427,
            -0.0020793376,
            0.0531886,
            0.053125825,
            -0.016700376,
            -0.03949651,
            -0.010331342,
            -0.00575296,
            -0.0016854765,
            0.037145417,
            0.007728944,
            -0.002571579,
            0.045827184,
            0.015888887,
            0.004618751,
            0.043670524,
            0.00013825261,
            -0.041667767,
            -0.03657876,
            -0.055219557,
            -0.026392743,
            -0.05342095,
            -0.03544894,
            -0.04727223,
            -0.041297123,
            -0.017611446,
            -0.0019542435,
            0.021839494,
            0.026327968,
            0.045343775,
            -0.042566873,
            0.021878192,
            -0.02087601,
            -0.006713903,
            0.0039690407,
            0.02841426,
            0.031685606,
            -0.037296724,
            -0.025102353,
            0.022718426,
            0.006354455,
            0.043913368,
            0.0011757591,
            -0.043738164,
            0.007842406,
            -0.03655396,
            0.022385621,
            0.01145147,
            -0.007899201,
            -0.045369364,
            0.022313457,
            0.054263275,
            0.016073704,
            0.0475682,
            -0.0395398,
            -0.009833045,
            -0.046204958,
            0.003993628,
            -0.034064725,
            -0.014032895,
            0.004759778,
            0.0060361233,
            -0.010789774,
            0.0016294487,
            -0.04716387,
            -0.047797035,
            0.039339427,
            0.03128778,
            -0.018078487,
            -0.04571036,
            0.04639945,
            0.02894403,
            -0.04644906,
            0.045229282,
            0.033070147,
            0.054419003,
            -0.022805704,
            -0.008042237,
            0.026676103,
            -0.020248722,
            0.0012558802,
            0.053491164,
            0.052503992,
            -0.033158194,
            0.03679949,
            -0.039857533,
            0.044558283,
            0.031223677,
            0.026061313,
            -0.05729892,
            -0.026771996,
            -0.016190872,
            0.0050244434,
            0.03688686,
            0.050874375,
            0.0064285584,
            0.0064070337,
            0.020140056,
            0.020578679,
            -0.0016829766,
            -0.034671023,
            -0.0022934775,
            -0.004313756,
            -0.006526488,
            0.03018083,
            0.00835636,
            0.046210982,
            0.049317356,
            -0.012425302,
            0.016844168,
            -0.034899496,
            0.039893523,
            0.042468034,
            -0.014808457,
            -0.050935566,
            0.03257504,
            0.034168866,
            0.028964588,
            -0.0378843,
            -0.021071859,
            -0.0056903963,
            -0.04444513,
            0.028274821,
            -0.0032937601,
            -0.033688433,
            0.047824707,
            -0.009407911,
            0.029398013,
            0.00094193546,
            -0.02429085,
            -0.028280642,
            0.037039503,
            -0.032194786,
            -0.051176913,
            0.01770406,
            -0.021465775,
            -0.04997866,
            0.02488405,
            0.0335054,
            -0.05362236,
            0.03647654,
            -0.02078123,
            0.008492673,
            0.022958532
          ],
          "bias": 0.02774995,
          "output": 0.08616708,
          "delta": 0.009991368
        },
        {
          "weights": [
            0.042306837,
            -0.026265213,
            0.008297533,
            -0.0006092787,
            -0.014140103,
            0.05126666,
            0.036287244,
            -0.0046637096,
            0.005523056,
            0.0057310723,
            0.017598461,
            0.028786484,
            -0.047268316,
            0.014790248,
            0.0125691565,
            -0.006854421,
            0.036795985,
            -0.009171404,
            0.0468139,
            0.029373344,
            -0.04487858,
            -0.031026304,
            -0.04155052,
            0.032540213,
            0.016986605,
            -0.0036851615,
            -0.023509141,
            -0.022941262,
            0.036157478,
            -0.03092282,
            -0.0149654,
            0.0023809075,
            -0.008622017,
            -0.037364163,
            -0.013691906,
            -0.03508863,
            -0.008878368,
            -0.048679657,
            -0.051045235,
            0.03359997,
            -0.04484795,
            -0.03531507,
            0.02657667,
            -0.04056014,
            -0.04187232,
            0.0044384627,
            -0.031842854,
            -0.03492209,
            -0.037398733,
            -0.03487592,
            -0.04703686,
            0.01875509,
            0.028997812,
            0.004084043,
            -0.00990431,
            -0.03762126,
            0.049765047,
            0.04464859,
            -0.044965096,
            0.032863673,
            -0.034410212,
            -0.024236022,
            0.008764161,
            -0.033289973,
            -0.030662231,
            0.04428282,
            -0.039271053,
            0.039031696,
            -0.023829099,
            -0.025286535,
            -0.016077178,
            0.039286785,
            -0.008320208,
            0.0090687685,
            -0.03535038,
            0.0070226924,
            0.0029593753,
            -0.032078594,
            -0.039540257,
            0.038044244,
            -0.035432685,
            -0.016030885,
            -0.04586354,
            0.040303055,
            -0.011588618,
            0.045279067,
            0.044311877,
            -0.048283897,
            -0.011897755,
            0.033589493,
            0.031844895,
            -0.020020507,
            0.04471472,
            0.005436506,
            -0.030315883,
            0.041224957,
            0.029604744,
            0.035209905,
            0.06892384,
            0.05640203,
            0.039028548,
            0.012418438,
            0.051290113,
            -0.047709886,
            0.030920185,
            0.041797422,
            -0.0014002195,
            0.04794577,
            -0.026207106,
            -0.034359325,
            0.018223261,
            -0.02709358,
            -0.0032106303,
            0.030469192,
            0.016058216,
            0.036432,
            0.008619552,
            0.050457515,
            -0.028847469,
            -0.028428826,
            -0.020329544,
            0.026341356,
            0.0665481,
            0.05719734,
            0.03009631,
            0.03239288,
            -0.003397882,
            0.04276294,
            0.04716889,
            0.04731029,
            0.04288486,
            0.031049281,
            0.004570345,
            -0.04116904,
            -0.0009878173,
            -0.04914187,
            0.03947006,
            -0.009348889,
            0.043551907,
            0.03396522,
            0.0075163245,
            -0.04734497,
            0.020179778,
            0.04694415,
            0.012712438,
            0.043075677,
            0.026416272,
            -0.032518085,
            0.0145783555,
            0.010525894,
            0.015163925,
            0.005749557,
            0.026601637,
            0.0390168,
            0.049045138,
            0.036842674,
            0.034227114,
            -0.012740014,
            0.009148429,
            -0.03253282,
            -0.03642867,
            -0.029575724,
            0.014269894,
            0.034395132,
            0.0043085422,
            -0.042792648,
            0.011203128,
            -0.04883001,
            -0.037917793,
            -0.046325147,
            0.050616514,
            0.008089307,
            -0.0048596812,
            -0.04063555,
            0.006668516,
            -0.0219476,
            -0.0018845778,
            -0.016700888,
            0.06176613,
            0.024554364,
            0.039645948,
            -0.006410497,
            0.019893013,
            0.005321067,
            0.01056894,
            0.029546617,
            0.020485811,
            -0.0069187214,
            -0.010330656,
            0.033820383,
            0.026229175,
            -0.046464693,
            -0.01704542,
            -0.026212396,
            -0.04015303,
            0.035149343,
            0.04440755,
            0.018695619,
            -0.010911351,
            0.03225301,
            -0.0107050715,
            -0.032580435,
            0.023939027,
            -0.013398106,
            -0.027435482,
            0.03468389,
            0.023616575,
            0.016068155,
            0.025579581,
            0.027710693,
            -0.0023286298,
            0.0044701668,
            0.03158212,
            -0.038518053,
            -0.03731275,
            0.0067302375,
            0.03627229,
            0.027691813,
            -0.026503328,
            0.020459978,
            -0.017953834,
            -0.013114903,
            0.013699699,
            -0.044954855,
            0.03224219,
            0.017626703,
            0.011208355,
            -0.04185464,
            0.024243154,
            0.011375365,
            -0.037149366,
            0.003961333,
            -0.023112707,
            0.009159716,
            -0.013650305,
            0.007702218,
            0.004409979,
            -0.052940145,
            0.052672844,
            0.0030618152,
            0.024690617,
            0.039950922,
            0.04884033,
            -0.04496198,
            0.03131384,
            0.035591144,
            0.013566285,
            -0.011843917,
            0.014022306,
            0.05641399,
            0.0069307764,
            -0.01834623,
            0.017073045,
            -0.049494594,
            -0.0075781574,
            0.03091939,
            0.05260706,
            0.050899077,
            0.052138723,
            0.015331773,
            0.036520094,
            -0.0544865,
            -0.007816293,
            -0.030533765,
            -0.058404986,
            -0.0128962,
            0.058943253,
            0.013578176,
            0.021773858,
            -0.020213224,
            -0.015493955,
            0.033408765,
            0.016964171,
            -0.039003015,
            0.026484279,
            0.03098016,
            -0.016757777,
            0.04409308,
            0.040716995,
            0.0018751094,
            0.0004079113,
            0.0021360458,
            -0.01162244,
            -0.016342608,
            0.046718743,
            0.01265198,
            0.020344572,
            -0.06314667,
            -0.07355714,
            -0.07353864,
            -0.07498769,
            -0.096911415,
            -0.016909594,
            -0.044638332,
            0.019998666,
            0.030687716,
            0.019703763,
            0.0035944572,
            0.024266582,
            -0.006516893,
            -0.034759205,
            0.00948573,
            0.02182259,
            -0.028172132,
            -0.0348445,
            -0.041628346,
            0.047040712,
            -0.049176876,
            0.03835465,
            -0.045122266,
            -0.008461303,
            0.03956469,
            0.000426292,
            0.020935612,
            0.0046306197,
            -0.025835954,
            -0.091829136,
            -0.11934919,
            -0.04050339,
            -0.07814559,
            -0.025770713,
            0.009021504,
            -0.004305163,
            0.016449073,
            0.023306597,
            0.01550622,
            -0.019562947,
            0.05169644,
            0.035972185,
            -0.06603627,
            -0.02068342,
            -0.0048716757,
            -0.02467613,
            -0.047176436,
            -0.02166858,
            0.040346168,
            0.010228854,
            -0.019973366,
            0.047345147,
            0.046168108,
            0.037805032,
            -0.06835644,
            -0.0644635,
            -0.061423358,
            -0.03387934,
            -0.052023977,
            -0.015928317,
            -0.0050227367,
            -0.023648344,
            0.026300667,
            0.06379868,
            -0.014635403,
            0.004326239,
            -0.011400347,
            -0.044603962,
            -0.03018325,
            -0.007061745,
            0.012304837,
            -0.042372145,
            -0.024625886,
            -0.035932206,
            -0.025646934,
            0.02181495,
            -0.0012394312,
            -0.028948903,
            -0.03145566,
            0.0066499985,
            0.04405529,
            0.0079902625,
            -0.06363548,
            -0.07855574,
            -0.055125616,
            0.017730819,
            0.040622294,
            0.010557456,
            0.01187075,
            -0.0329212,
            -0.033236817,
            0.036385518,
            0.0037335488,
            -0.03489556,
            0.016605675,
            -0.00904448,
            -0.022937767,
            -0.04656622,
            -0.07100049,
            -0.034220874,
            -0.034256905,
            -0.05909738,
            0.04615911,
            0.050238665,
            0.011493472,
            0.016124206,
            0.00721136,
            0.006433287,
            -0.0036503298,
            -0.0516039,
            -0.061249197,
            -0.0076926635,
            -0.07280959,
            -0.01160601,
            -0.03633695,
            -0.0318681,
            -0.056656256,
            -0.0016602315,
            0.014090537,
            0.060474705,
            -0.041992642,
            -0.059622403,
            0.01951593,
            -0.04192827,
            -0.006784647,
            -0.033136543,
            0.010550607,
            -0.03589798,
            0.010532441,
            0.0037997025,
            0.047326528,
            -0.04511914,
            0.017388258,
            -0.051583663,
            -0.0092762485,
            -0.027273474,
            0.01328329,
            -0.01778616,
            0.004630188,
            -0.03897194,
            -0.026661843,
            0.015581598,
            0.001430474,
            -0.03827044,
            -0.028205428,
            0.026388533,
            -0.0010344877,
            0.06626894,
            -0.0069811908,
            -0.035294138,
            -0.0355436,
            -0.05858056,
            -0.033490755,
            -0.03474983,
            -0.047778584,
            0.011982708,
            0.026464516,
            0.023816979,
            -0.001356076,
            0.00811119,
            -0.037433572,
            -0.0015924759,
            -0.008083842,
            0.02648687,
            0.021518128,
            0.047619008,
            -0.046017952,
            -0.047086462,
            -0.07847148,
            -0.0774239,
            -0.051559795,
            0.005543915,
            -0.030458365,
            -0.03728697,
            0.0050118472,
            0.07184139,
            -0.022883171,
            -0.065511785,
            -0.056722306,
            0.021189105,
            -0.024523055,
            0.0015754065,
            -0.011182801,
            0.03235931,
            -0.050824415,
            0.022441406,
            0.032762013,
            -0.022974214,
            0.032970514,
            -0.038500577,
            0.0048239026,
            0.00022750052,
            -0.003503914,
            -0.015244169,
            -0.014486068,
            0.0069467183,
            -0.046931162,
            -0.011367938,
            -0.087496586,
            -0.040405992,
            -0.051028606,
            0.011457739,
            -0.03321404,
            0.0058402284,
            -0.0016949004,
            -0.009890779,
            -0.011272169,
            -0.034443654,
            -0.011910198,
            0.0068987254,
            -0.023856994,
            -0.00516789,
            0.035570588,
            -0.030699925,
            -0.018175721,
            0.049876604,
            -0.028332174,
            -0.01015102,
            -0.01301429,
            0.030826876,
            0.021358276,
            0.011053541,
            0.027299277,
            -0.0048859967,
            0.017465692,
            0.013963904,
            -0.008742955,
            -0.016539298,
            -0.030312622,
            -0.058197267,
            0.028330032,
            0.043177634,
            0.055774573,
            0.04453784,
            0.054178696,
            -0.02604988,
            -0.023585755,
            -0.008400424,
            -0.013083579,
            -0.0055596903,
            0.025054993,
            0.04049362,
            0.014244133,
            0.012252577,
            0.041656043,
            -0.027065199,
            0.009492414,
            0.0026464106,
            0.012642225,
            0.027219435,
            0.054983564,
            -0.0002552198,
            0.003002901,
            -0.0108708795,
            -0.034701884,
            0.015901873,
            0.014987941,
            -0.0045129913,
            0.03232891,
            -0.019036282,
            0.07310671,
            0.049750585,
            0.0051754178,
            0.039588254,
            0.008134462,
            0.026302574,
            0.058345485,
            -0.028606849,
            0.033412818,
            -0.03996049,
            -0.04145306,
            0.039464418,
            -0.016284183,
            -0.03312949,
            -0.025500821,
            0.049245052,
            -0.020851769,
            -0.0010653713,
            0.034847207,
            0.03556867,
            -0.000965394,
            0.08093307,
            0.036678463,
            0.002762788,
            0.052624967,
            0.008181381,
            -0.004137561,
            0.0033241124,
            -0.0075486423,
            0.06690702,
            0.06445992,
            0.05819645,
            -0.016986273,
            -0.010875381,
            0.0028657368,
            0.04808275,
            0.028743671,
            0.006606531,
            -0.036169548,
            0.042119604,
            -0.03146821,
            -0.0079969,
            -0.028263513,
            -0.020007443,
            0.05200918,
            0.027904063,
            0.055180356,
            0.069224395,
            -0.022276593,
            0.06156366,
            0.0215119,
            0.0562702,
            -0.00807691,
            0.052248873,
            0.011647068,
            -0.004294666,
            0.016079117,
            0.012916045,
            0.041354615,
            0.046955407,
            0.042960074,
            0.049248464,
            -0.01509154,
            0.00004892602,
            0.053179026,
            -0.013032859,
            0.049308266,
            -0.01626717,
            -0.019567862,
            0.044891845,
            -0.025116235,
            0.036420133,
            -0.02366783,
            0.040325478,
            0.0679321,
            -0.012852333,
            0.058867,
            -0.003136566,
            0.04675443,
            -0.007980758,
            0.023174297,
            0.030547611,
            -0.0028927035,
            -0.031573154,
            0.017190248,
            0.023023967,
            0.049328674,
            0.031027457,
            0.055864263,
            0.0012046257,
            -0.002174029,
            -0.03285891,
            -0.032757573,
            -0.0075037545,
            0.03103156,
            0.020786421,
            0.023425207,
            0.01217832,
            0.005525138,
            -0.016529266,
            -0.008560815,
            0.027703196,
            -0.024973208,
            0.05904842,
            0.03033154,
            0.023458844,
            0.03236578,
            0.058005247,
            0.00064871326,
            0.016026182,
            0.0017205161,
            -0.0025262758,
            -0.010617133,
            -0.025603784,
            0.03821003,
            0.035936553,
            0.035464693,
            0.0028946365,
            -0.011607819,
            0.0073938747,
            -0.0072098654,
            0.016848098,
            -0.028726289,
            -0.0067791375,
            0.023204815,
            0.024914298,
            0.0063895024,
            0.009760588,
            -0.044595104,
            -0.02111446,
            0.063504964,
            0.018056981,
            0.007627609,
            0.03438406,
            0.042788062,
            -0.0013402931,
            -0.027776822,
            0.0483862,
            0.00784145,
            0.019279623,
            0.015678082,
            -0.0346442,
            0.0069375075,
            -0.026581524,
            0.00844375,
            0.030990291,
            0.042221732,
            0.0075697945,
            0.008633931,
            0.038593598,
            0.007919713,
            0.037946112,
            -0.050858557,
            -0.043197572,
            0.0085935,
            0.0066949907,
            0.010180292,
            0.038034428,
            -0.016888665,
            0.011927222,
            0.016320352,
            0.0057331882,
            -0.04969367,
            0.0046500443,
            0.025319448,
            0.011629477,
            0.025849314,
            -0.012617474,
            0.0076463777,
            -0.013514508,
            -0.022716906,
            -0.02346298,
            -0.029397741,
            -0.015208816,
            0.04016582,
            0.013282116,
            0.04175443,
            -0.011946589,
            -0.008227638,
            -0.005493935,
            0.037286606,
            0.01659296,
            0.037349034,
            0.048808772,
            0.051497687,
            0.034397986,
            -0.0484162,
            0.048470825,
            0.044384703,
            0.032401256,
            0.00040912887,
            0.021340815,
            0.031504042,
            0.013712846,
            0.018607207,
            -0.040528044,
            0.01716324,
            -0.031928062,
            -0.033175085,
            0.045723088,
            0.028203836
          ],
          "bias": -0.014934491,
          "output": 0.0,
          "delta": 0.0
        },
        {
          "weights": [
            -0.021238213,
            0.016055744,
            0.024989296,
            0.034642268,
            0.027933594,
            0.028889988,
            -0.046645127,
            -0.013641607,
            -0.044643477,
            0.018182721,
            -0.05160002,
            -0.002878137,
            -0.0020019698,
            -0.015180039,
            -0.048489127,
            0.031486716,
            0.031766634,
            -0.04055053,
            0.0008217208,
            -0.030308967,
            -0.013542548,
            0.04943801,
            0.04435567,
            -0.02395057,
            -0.040582314,
            -0.0014328733,
            0.0344331,
            -0.028086675,
            0.030403625,
            -0.043850284,
            -0.027505036,
            0.050562877,
            0.001129345,
            0.009096439,
            -0.047914404,
            0.032322958,
            0.035002008,
            -0.051704723,
            -0.03879109,
            0.03810702,
            -0.014289808,
            0.023773592,
            -0.018764343,
            0.013286809,
            0.018865382,
            -0.01917921,
            -0.046206225,
            0.044614006,
            0.004412239,
            0.020916324,
            0.049592603,
            -0.02286902,
            0.018752825,
            -0.018847529,
            -0.009047035,
            -0.012333002,
            0.04006468,
            0.02901977,
            -0.01051313,
            0.04787676,
            0.046676327,
            0.04818118,
            0.0077140084,
            0.02233977,
            -0.0057703224,
            0.0072051156,
            0.00037232137,
            -0.023351282,
            -0.030380605,
            -0.0057408684,
            -0.017281808,
            0.023717042,
            0.027082762,
            -0.049466535,
            0.042153947,
            -0.008639114,
            0.033472225,
            0.047108553,
            0.0021542674,
            -0.04112945,
            0.04704942,
            0.04832907,
            0.032484908,
            0.008510776,
            -0.0002101846,
            0.04924394,
            -0.015958598,
            -0.04690523,
            0.023324678,
            -0.019526815,
            0.037861146,
            -0.044872675,
            0.027695676,
            0.00087478023,
            -0.025610667,
            -0.018486967,
            -0.019553872,
            -0.016487768,
            -0.019955555,
            -0.010306585,
            -0.0064598885,
            -0.00059576426,
            -0.029233932,
            -0.03874688,
            -0.035418537,
            -0.01613807,
            -0.050010044,
            0.020588975,
            0.042484242,
            0.026232768,
            0.0064301286,
            0.018064063,
            -0.026762785,
            -0.02692411,
            -0.03243479,
            -0.034167003,
            -0.002750276,
            -0.03799273,
            -0.046340548,
            0.03817186,
            0.02937857,
            -0.035457056,
            0.05825791,
            0.0019201173,
            -0.0046357056,
            0.0025401167,
            0.020522248,
            -0.029824212,
            -0.07053774,
            0.0014624846,
            -0.009734579,
            -0.033134833,
            -0.041881323,
            0.018123383,
            0.002830877,
            -0.022666225,
            -0.022634432,
            -0.00027878888,
            0.011416797,
            -0.0430802,
            0.033203084,
            -0.035267744,
            0.04916602,
            -0.0340464,
            -0.03672209,
            0.018518427,
            0.006844164,
            0.015003461,
            -0.004355785,
            0.025203139,
            0.062068265,
            0.018021228,
            0.008989193,
            0.062434327,
            -0.02440568,
            0.00972653,
            -0.042495754,
            -0.025196705,
            -0.042371277,
            0.022932189,
            -0.050713483,
            0.003797541,
            0.021388797,
            0.035199784,
            0.03461435,
            0.04717638,
            -0.04980555,
            -0.04458911,
            -0.041781887,
            0.03194123,
            -0.014585201,
            -0.030465646,
            -0.0046082954,
            0.022933291,
            -0.0003949938,
            0.057254672,
            -0.024814498,
            0.057297785,
            -0.022724275,
            -0.013256148,
            0.024869267,
            0.08779099,
            0.0182126,
            0.06328799,
            -0.027613832,
            0.022235628,
            0.0015189797,
            -0.029312233,
            -0.01889249,
            -0.04488717,
            -0.024297055,
            0.02862806,
            0.008921697,
            0.05033458,
            -0.046021786,
            0.022829132,
            -0.015737865,
            0.024818085,
            0.006808633,
            0.04153197,
            0.03341685,
            0.020608125,
            0.008618006,
            -0.021801624,
            0.05301598,
            -0.035867386,
            0.006148398,
            0.047749177,
            0.068235986,
            0.064518005,
            0.08304899,
            0.0069842613,
            0.031207649,
            0.033712626,
            -0.0012958981,
            0.044929776,
            -0.027142914,
            -0.00068385754,
            -0.034006312,
            -0.0025153742,
            -0.008302403,
            0.012136938,
            -0.04769842,
            -0.004690032,
            0.004563249,
            -0.0009269822,
            0.0037480982,
            0.027165407,
            -0.024373975,
            -0.03726079,
            0.037949517,
            -0.009546876,
            -0.02411625,
            0.031477273,
            0.052851286,
            0.06820927,
            0.08400147,
            0.033694543,
            0.06015144,
            0.016535493,
            -0.04915191,
            0.0061351624,
            -0.042647056,
            -0.012075856,
            -0.03228454,
            -0.05167403,
            0.033643667,
            0.016991366,
            0.016331133,
            0.0062391637,
            -0.03652787,
            -0.035095725,
            0.043353885,
            -0.003931277,
            0.030190023,
            0.044765305,
            -0.0382486,
            -0.028256722,
            -0.017927784,
            0.070327684,
            -0.015348594,
            0.066924974,
            0.058001157,
            -0.013061565,
            -0.0008919617,
            -0.008239656,
            0.032088,
            0.003019172,
            -0.010317417,
            -0.0038597789,
            -0.03355484,
            -0.050141197,
            -0.010055412,
            0.03462454,
            0.00081136724,
            -0.01963214,
            -0.021431968,
            0.05320101,
            0.017492972,
            -0.038585566,
            0.02534382,
            0.013097579,
            -0.0076122573,
            0.024356106,
            0.03719248,
            0.030075535,
            -0.032697458,
            0.026226033,
            0.00014526273,
            0.031269543,
            0.0035720149,
            0.02779308,
            0.05037656,
            -0.016231643,
            0.040538676,
            -0.038986586,
            -0.036708914,
            0.001085595,
            -0.038978226,
            -0.038722545,
            -0.0487837,
            -0.050960634,
            -0.012493482,
            -0.040734645,
            0.032467272,
            -0.023708323,
            0.051425286,
            -0.03609397,
            0.015666265,
            -0.01584823,
            0.015981864,
            -0.02720328,
            0.003986324,
            -0.028922254,
            -0.03920144,
            -0.04077573,
            0.01366723,
            0.0076314695,
            -0.050871026,
            -0.022575356,
            -0.012544895,
            -0.017898887,
            0.028888725,
            0.018116144,
            -0.0001015228,
            -0.04354169,
            0.045551825,
            -0.048256285,
            0.025070898,
            -0.031810448,
            -0.0084762955,
            0.033009164,
            0.016767832,
            -0.03168531,
            -0.033489246,
            0.048334077,
            0.021933872,
            -0.026926486,
            -0.049406048,
            0.028765338,
            -0.03553196,
            0.02847154,
            -0.034084488,
            0.03145856,
            -0.025649128,
            -0.030924372,
            -0.01929584,
            0.01962232,
            0.03460313,
            0.0072425115,
            0.015578769,
            -0.0035971906,
            -0.05771153,
            -0.03927157,
            0.032960773,
            0.03274571,
            -0.05007327,
            -0.019273259,
            -0.017307816,
            -0.01231758,
            -0.019756041,
            0.0214455,
            0.03450851,
            -0.013851951,
            -0.036955275,
            -0.049854692,
            0.040960044,
            0.047097627,
            0.0005557256,
            0.032923706,
            0.0014360211,
            -0.05255207,
            -0.0009542529,
            0.0155260395,
            0.0028367355,
            0.013118142,
            -0.021647023,
            0.0128959175,
            0.025007013,
            -0.04029728,
            -0.01931318,
            -0.0023121152,
            0.020486217,
            -0.05920543,
            -0.016417898,
            -0.020929072,
            0.01991781,
            0.01950041,
            -0.029552408,
            0.028802294,
            -0.038610946,
            -0.030857997,
            0.048001535,
            -0.024367929,
            0.0023960846,
            0.02657582,
            -0.0423403,
            -0.0391683,
            0.024256347,
            0.023920042,
            0.0047034407,
            0.0002212183,
            -0.045894437,
            -0.04751242,
            0.036232185,
            0.062825605,
            -0.016378567,
            -0.031501204,
            -0.01556091,
            -0.058873937,
            -0.057295203,
            0.008129595,
            -0.023362342,
            -0.0044089123,
            0.008914901,
            0.0082865525,
            -0.013829341,
            -0.00033462263,
            -0.013638426,
            -0.015032554,
            0.01906291,
            -0.01698334,
            -0.029029503,
            -0.0074204984,
            -0.015753621,
            -0.0017248609,
            -0.02695953,
            -0.03929321,
            -0.0418487,
            -0.005894643,
            0.023309302,
            0.012612273,
            0.0070011085,
            0.025633622,
            -0.0048413277,
            -0.032279983,
            0.021120602,
            -0.05118519,
            -0.051914215,
            -0.058620896,
            0.009144296,
            -0.035921365,
            0.00037576386,
            0.045122128,
            0.02378778,
            -0.037300512,
            0.019637758,
            -0.042742617,
            0.047249824,
            0.013709477,
            -0.025056804,
            0.021888014,
            0.043143243,
            -0.039004613,
            -0.06557406,
            -0.04625252,
            0.023559235,
            -0.037785634,
            0.01999799,
            0.033365548,
            0.035751875,
            -0.004460413,
            0.009210368,
            -0.018784594,
            -0.0602036,
            0.0005830367,
            -0.051705413,
            0.0002805237,
            0.007374083,
            0.017912824,
            -0.0054383515,
            0.02412907,
            0.029266484,
            0.049835026,
            -0.0050756726,
            0.006177176,
            0.045040008,
            -0.04911318,
            0.014171154,
            -0.03544201,
            -0.012960638,
            -0.018821076,
            -0.0283297,
            -0.057364717,
            -0.044023454,
            0.022252558,
            0.016426709,
            0.0035147395,
            0.010865472,
            -0.0101063,
            -0.009236144,
            -0.03665364,
            -0.0720884,
            0.022406103,
            -0.026423158,
            0.026814155,
            0.0062230574,
            0.019630134,
            0.027833842,
            0.0013740574,
            0.061273422,
            0.057400674,
            0.036701806,
            -0.016901491,
            -0.04930608,
            0.041207016,
            -0.016234072,
            -0.041127548,
            0.011691686,
            -0.046458106,
            -0.027391154,
            -0.029289195,
            0.030631961,
            -0.06272919,
            0.012102691,
            0.034914345,
            -0.031788275,
            -0.047293928,
            -0.066404566,
            0.010989898,
            -0.024311358,
            -0.0004418827,
            -0.011774594,
            -0.006515595,
            0.06330125,
            0.023096638,
            0.056608655,
            0.031402923,
            0.03631796,
            -0.021725848,
            0.005509291,
            -0.008777462,
            -0.007396151,
            0.04004278,
            -0.0413268,
            -0.009067361,
            -0.00710388,
            -0.042133093,
            -0.022034524,
            -0.015515954,
            -0.059784517,
            0.027984247,
            0.0136264935,
            -0.05650522,
            -0.03051265,
            0.028352872,
            0.029866269,
            0.029744485,
            0.037756875,
            -0.0003130459,
            0.050901417,
            0.04680039,
            0.003615639,
            0.067172594,
            0.034378137,
            0.025216535,
            0.02210558,
            0.002830141,
            -0.03525148,
            0.010055347,
            0.024328936,
            -0.031705614,
            0.010840525,
            0.010477449,
            0.0458877,
            -0.01645016,
            0.026769001,
            -0.051096044,
            0.030508265,
            0.017008906,
            0.026123073,
            -0.0034591604,
            0.03272853,
            0.0050645624,
            0.031160416,
            -0.011021321,
            0.0046472326,
            0.0015018195,
            0.034319084,
            0.06496527,
            0.038352113,
            0.0038650492,
            0.021988276,
            0.038455818,
            0.0065793954,
            -0.031138472,
            0.019363036,
            0.008978604,
            -0.03944193,
            0.023695553,
            -0.011592004,
            -0.018262178,
            0.04051519,
            0.0057595596,
            0.040401306,
            -0.009713078,
            -0.017486341,
            0.01634419,
            -0.013078066,
            -0.021970665,
            -0.017977076,
            -0.005328507,
            0.014861636,
            0.0022803224,
            0.05314455,
            0.05603935,
            0.061940704,
            -0.018764952,
            0.008589416,
            0.044111285,
            0.033997018,
            -0.026554273,
            0.023045937,
            -0.0008571412,
            -0.02119242,
            -0.0016517853,
            -0.027786128,
            -0.0029796339,
            -0.028150745,
            0.037576754,
            0.017154451,
            0.03286164,
            0.03642809,
            -0.0103489645,
            -0.039879106,
            0.049670905,
            0.01051814,
            0.051636223,
            0.00959485,
            -0.0037890903,
            -0.032005366,
            0.06946029,
            0.04006307,
            0.024074223,
            -0.0058741844,
            -0.017992603,
            0.06619262,
            -0.0045145587,
            0.053726953,
            -0.0191209,
            0.023738947,
            -0.0020776184,
            -0.021947198,
            -0.0031799008,
            0.011762571,
            0.033583444,
            0.011245506,
            -0.046612367,
            0.027405253,
            -0.04052275,
            0.030473284,
            0.018593526,
            -0.012739434,
            0.016684515,
            -0.024566192,
            0.034044523,
            0.047059227,
            0.028088748,
            0.0256596,
            0.009989966,
            0.037862148,
            0.0058297142,
            0.073970295,
            0.07351807,
            -0.034495026,
            0.041544076,
            -0.016357293,
            0.023471704,
            -0.020932784,
            -0.049948473,
            -0.0041965684,
            -0.026301127,
            -0.022918614,
            0.0010644905,
            0.037943237,
            -0.029603735,
            0.05038137,
            0.023217881,
            0.01694934,
            0.012838722,
            0.035778027,
            0.040409043,
            0.034670237,
            -0.026449485,
            -0.026561428,
            -0.0024491744,
            -0.025621535,
            0.025613861,
            0.019223252,
            -0.019243773,
            0.02320669,
            0.049087938,
            0.005123169,
            0.04115179,
            -0.033056546,
            0.024946434,
            -0.033422157,
            0.041588336,
            -0.05006186,
            -0.014991745,
            0.0070587695,
            0.010605004,
            -0.03442118,
            0.0035831735,
            0.00819978,
            0.032577194,
            0.022879861,
            -0.02386531,
            -0.05047715,
            0.045163285,
            0.024620809,
            -0.03112478,
            -0.024476789,
            0.010448979,
            -0.010873739,
            0.030072914,
            -0.02466234,
            0.05411704,
            -0.031297386,
            0.049022686,
            0.007672232,
            -0.009630583,
            -0.006310661,
            -0.019867614,
            -0.038964078,
            0.015608719,
            -0.028157987,
            0.013177481,
            0.035564754,
            0.018693026,
            -0.02837612,
            0.026880192,
            0.023253618,
            -0.013463504,
            0.016698673,
            0.004246422,
            -0.009748789,
            0.038803093,
            0.04121733,
            0.040201046,
            0.050052967,
            0.026207991,
            0.049487967,
            0.03450733,
            -0.00693171,
            0.05200012,
            0.001721243,
            0.004691256
          ],
          "bias": -0.003000043,
          "output": 0.0,
          "delta": 0.0
        },
        {
          "weights": [
            0.030379858,
            -0.01902486,
            -0.026645444,
            0.02853975,
            -0.00792766,
            -0.0019890293,
            0.043580826,
            0.027493376,
            0.026331257,
            -0.028059442,
            0.03514011,
            -0.029481614,
            0.032297272,
            0.038355496,
            0.043694783,
            -0.008762237,
            -0.036060527,
            0.047919955,
            -0.004930876,
            0.008990683,
            0.03957462,
            -0.033949018,
            0.019370962,
            -0.007835198,
            -0.024944628,
            -0.030387733,
            -0.0105135515,
            -0.011334777,
            -0.023268837,
            -0.039759856,
            -0.03959812,
            0.019773845,
            0.035847176,
            -0.028558196,
            -0.038248327,
            -0.032053187,
            -0.02452324,
            -0.02578036,
            0.011670158,
            0.015028213,
            0.039438196,
            -0.0008526614,
            -0.032982092,
            -0.006017393,
            0.030689387,
            0.033977773,
            0.013400646,
            0.0026712385,
            -0.010713284,
            0.029568862,
            0.050424848,
            -0.049624335,
            -0.0028115623,
            0.0021360666,
            0.037981186,
            -0.045516778,
            -0.022415852,
            0.015127737,
            -0.028078897,
            -0.008077148,
            0.01903718,
            0.029024292,
            -0.027640393,
            -0.021275222,
            -0.033225436,
            -0.02564482,
            0.022553068,
            -0.0014193013,
            -0.016559994,
            -0.03239159,
            0.018093819,
            0.011760745,
            -0.02225087,
            0.011870572,
            -0.011844632,
            -0.022103012,
            -0.009841545,
            -0.030509112,
            -0.027782232,
            0.010756993,
            0.031920657,
            -0.0013276488,
            -0.048238307,
            -0.016678616,
            0.021323603,
            0.036952373,
            -0.045334417,
            0.02965396,
            -0.02569005,
            -0.043729916,
            -0.029151944,
            -0.01328591,
            0.038891263,
            -0.008034403,
            0.004211943,
            -0.010323888,
            -0.004589546,
            0.050917994,
            -0.010933562,
            -0.04587276,
            0.015301941,
            -0.042021252,
            -0.036463413,
            -0.014900972,
            0.0279722,
            0.03416325,
            0.042604953,
            0.050733667,
            -0.02029658,
            -0.0056691794,
            0.014504086,
            0.016947452,
            0.010666914,
            -0.03534837,
            -0.016072754,
            -0.013509863,
            -0.04924397,
            0.044011053,
            -0.042602625,
            0.047333464,
            -0.048352346,
            0.00782985,
            0.023955101,
            -0.05066985,
            0.007989259,
            -0.02121315,
            0.012904333,
            -0.005454696,
            0.055054653,
            -0.017909465,
            0.003917638,
            -0.025625305,
            -0.00060559594,
            0.0005873237,
            0.039910115,
            -0.018626882,
            0.0291783,
            -0.027360883,
            0.03260016,
            -0.0360517,
            0.037529882,
            -0.050429743,
            -0.05094535,
            -0.042214062,
            -0.03851194,
            -0.023472361,
            -0.04469297,
            -0.009417591,
            0.043493476,
            0.030190071,
            0.024524054,
            -0.05800687,
            -0.028413324,
            0.009625685,
            -0.04532675,
            0.0010016734,
            -0.023430029,
            -0.045332648,
            -0.0399864,
            0.024943128,
            0.035771344,
            -0.009107619,
            0.0166078,
            -0.040375493,
            -0.027697243,
            -0.047070798,
            0.046201322,
            0.029442782,
            -0.022754611,
            0.031728618,
            -0.047416173,
            0.04116798,
            -0.036886297,
            -0.01137535,
            0.03667619,
            -0.010175116,
            0.03599889,
            0.037474666,
            0.04375761,
            -0.013750395,
            0.03636612,
            0.029982291,
            0.012087498,
            0.029523145,
            -0.03506444,
            -0.022120554,
            -0.026598608,
            -0.020209033,
            -0.04008551,
            -0.0016367168,
            -0.0006840161,
            -0.03388926,
            -0.02635505,
            0.04031678,
            0.04098766,
            0.021798782,
            -0.024394315,
            0.030587336,
            0.045077328,
            -0.014999318,
            0.015677739,
            -0.010428599,
            -0.017029671,
            -0.06603462,
            0.00063655694,
            -0.01806143,
            0.029872857,
            0.04547084,
            0.02117337,
            0.07139955,
            -0.0064871944,
            0.03973099,
            0.022789465,
            -0.025121087,
            -0.0024371168,
            -0.034626305,
            0.011638421,
            -0.018924644,
            -0.009078136,
            0.033922218,
            0.04492828,
            -0.030335028,
            -0.012138098,
            -0.031707745,
            0.040386233,
            -0.027021574,
            -0.027681798,
            0.05096332,
            -0.013215412,
            0.0066892984,
            -0.044505563,
            0.010984139,
            -0.024705607,
            0.023001976,
            -0.000498941,
            0.006417246,
            0.006098898,
            0.053698063,
            0.008498925,
            0.008255147,
            -0.02928136,
            -0.006942154,
            -0.0033326454,
            0.019804582,
            0.04247017,
            -0.036149878,
            -0.019489571,
            0.00044023365,
            0.02528224,
            -0.040478095,
            0.0040390342,
            -0.0131672,
            0.020052006,
            -0.0015633465,
            0.016420916,
            0.03761765,
            0.02098034,
            0.02038899,
            -0.044757497,
            0.0047994894,
            0.0052619604,
            -0.0012363932,
            -0.018560095,
            0.059586074,
            0.027666697,
            -0.004604715,
            -0.044476464,
            0.028660376,
            0.024264175,
            -0.024964307,
            0.036966767,
            -0.026865145,
            -0.0036170788,
            0.028306669,
            -0.030676603,
            0.010945589,
            0.009210998,
            -0.051103998,
            -0.015100007,
            0.013792592,
            -0.04606514,
            -0.0029558388,
            0.018084493,
            -0.034179337,
            0.045496907,
            0.010572161,
            -0.056098588,
            0.01578366,
            -0.050946765,
            0.03485792,
            0.016183656,
            -0.013802257,
            0.04356787,
            -0.038752705,
            -0.07528743,
            0.0015452633,
            -0.058267355,
            -0.0117573105,
            -0.02271042,
            0.056636535,
            -0.0053662737,
            -0.040624585,
            0.040350992,
            -0.034170005,
            -0.013196216,
            0.037763525,
            -0.0111977365,
            -0.0402404,
            0.030838935,
            0.0019768775,
            -0.022204107,
            0.022942163,
            0.02736368,
            -0.029714763,
            0.012260215,
            -0.02115022,
            -0.008768746,
            -0.023391629,
            0.007716597,
            0.001101133,
            0.040418684,
            -0.009569907,
            -0.0010022675,
            -0.04292426,
            -0.03655057,
            0.04817577,
            -0.024025256,
            0.006954876,
            0.035669457,
            -0.005577389,
            0.010327681,
            0.03271953,
            -0.006914532,
            0.010895578,
            -0.026248978,
            0.035216596,
            -0.03788389,
            -0.045996115,
            -0.014695557,
            -0.027761417,
            0.024140876,
            -0.013280333,
            -0.008868404,
            -0.011928668,
            -0.02348734,
            0.041849587,
            -0.0071014087,
            -0.014099637,
            -0.003040254,
            -0.029206717,
            -0.015719038,
            0.006824122,
            -0.041254234,
            -0.030435733,
            -0.018030465,
            -0.02381636,
            -0.03950375,
            0.0048260842,
            0.0029654442,
            0.032723166,
            -0.011412345,
            0.013895612,
            -0.02723827,
            0.048556875,
            0.0074710026,
            0.00025583804,
            0.040742524,
            0.04324265,
            -0.05176614,
            -0.041732963,
            0.021246549,
            0.0027688069,
            0.056276772,
            0.03250161,
            0.054659702,
            -0.0039171893,
            0.04102518,
            -0.020045487,
            -0.027478695,
            -0.038768996,
            -0.014272881,
            0.015231268,
            0.042753354,
            0.04494118,
            0.026746545,
            0.009101899,
            0.048163243,
            -0.030217258,
            -0.026266396,
            -0.027284978,
            0.023639606,
            0.01932624,
            0.049526338,
            0.043860592,
            -0.013736808,
            0.019927356,
            -0.051356602,
            0.0021294942,
            0.054955,
            0.026672473,
            0.02005514,
            -0.0029395495,
            0.04897544,
            -0.045031786,
            -0.041295994,
            -0.012636497,
            0.019151978,
            0.027435064,
            -0.017497549,
            0.019620912,
            -0.024299154,
            -0.02502747,
            -0.006803929,
            -0.030329356,
            -0.018305872,
            -0.00065739406,
            -0.0033695016,
            0.025182273,
            -0.00010864872,
            -0.010414516,
            -0.0031169062,
            0.051215872,
            0.041561056,
            0.00967247,
            0.034250155,
            0.04928212,
            0.00078328047,
            -0.0006189511,
            0.02070042,
            0.021247294,
            -0.04402858,
            0.0053032874,
            -0.051481396,
            -0.03481714,
            -0.02085653,
            -0.0037762278,
            0.011090924,
            0.012156644,
            0.002873272,
            -0.005636627,
            -0.012817888,
            0.00034018725,
            -0.050588787,
            0.0107699875,
            0.024930831,
            -0.020012166,
            0.013537763,
            0.028357565,
            0.009025671,
            0.041468263,
            0.01635119,
            0.004683554,
            -0.031174911,
            -0.04695898,
            0.023940101,
            -0.017676704,
            -0.034325637,
            -0.050936915,
            -0.02150365,
            -0.030135356,
            -0.016041989,
            -0.038759485,
            0.020026732,
            -0.0037631558,
            -0.0074416865,
            0.0037536742,
            -0.036845196,
            -0.03594469,
            -0.048835877,
            0.0030198505,
            -0.030940281,
            0.0154579505,
            0.027207648,
            0.029627712,
            -0.04378006,
            -0.019860787,
            -0.0024829023,
            0.024943758,
            -0.04820537,
            0.017673617,
            0.034722418,
            0.031429835,
            0.036897555,
            -0.043359794,
            -0.046085663,
            0.0017474095,
            -0.02008606,
            -0.0041327435,
            -0.046517536,
            0.049842995,
            0.0421727,
            0.02137094,
            -0.024312094,
            -0.005235513,
            -0.023479044,
            -0.006196058,
            0.041857965,
            -0.030604102,
            0.03581087,
            0.03885181,
            0.05197214,
            0.0033823643,
            -0.037480883,
            -0.034038015,
            0.018950988,
            -0.05017543,
            0.047694687,
            -0.009384999,
            -0.014461871,
            -0.016067233,
            -0.027294185,
            -0.051226888,
            0.04749254,
            -0.015612303,
            0.020323308,
            -0.04879228,
            -0.021329267,
            0.0077670263,
            0.016623462,
            0.014564168,
            -0.0011907688,
            -0.029060453,
            -0.026331628,
            0.0067377132,
            -0.03785311,
            -0.055548377,
            -0.049843214,
            0.0023807194,
            -0.001426709,
            -0.013034166,
            -0.0280151,
            0.008713297,
            0.002380859,
            -0.023466645,
            0.037784807,
            0.03128908,
            0.004806841,
            0.02672565,
            0.03656223,
            -0.031381615,
            0.011745572,
            -0.0001419246,
            0.009454411,
            0.04004639,
            -0.0071248654,
            0.030711722,
            0.042759884,
            -0.009451628,
            -0.025308196,
            -0.0507996,
            0.032826483,
            0.03195749,
            0.0061386386,
            0.031265367,
            0.021056607,
            -0.01036359,
            0.02072939,
            -0.009876627,
            0.018139424,
            -0.042038683,
            0.047143158,
            -0.00839635,
            0.026462495,
            0.038896296,
            -0.016617035,
            0.0055732154,
            0.025735471,
            -0.036438078,
            -0.023827001,
            -0.011737137,
            -0.03294765,
            -0.029614389,
            0.0350454,
            -0.02440063,
            0.039089568,
            -0.038552288,
            0.022713667,
            -0.0050386703,
            0.0017290032,
            -0.02931178,
            0.026180185,
            -0.012743902,
            -0.0093900645,
            0.028453419,
            0.04009004,
            -0.05060136,
            -0.02109077,
            -0.0063014594,
            -0.016779255,
            0.001955692,
            0.024571933,
            0.02057283,
            -0.015467794,
            -0.026332345,
            -0.02503889,
            -0.029161984,
            -0.015022306,
            0.009274003,
            0.051822565,
            -0.016182618,
            0.0598446,
            0.0328643,
            -0.026763137,
            -0.049066585,
            -0.056852784,
            0.024332548,
            0.013560352,
            -0.027793225,
            -0.0035769183,
            -0.0091262,
            -0.042372677,
            0.0022528963,
            0.03941761,
            0.029344825,
            0.0060721794,
            0.0083367005,
            0.0493087,
            0.049480174,
            0.0331996,
            0.04104612,
            0.039525475,
            0.04121447,
            -0.0100081265,
            -0.05177319,
            0.00789179,
            0.03758533,
            0.019377925,
            0.0481247,
            0.054354694,
            0.005430076,
            -0.04391693,
            0.0064335684,
            -0.056279358,
            0.008018337,
            -0.041337475,
            -0.063382,
            0.03832222,
            0.03422841,
            0.013846726,
            0.046729054,
            -0.027298393,
            0.00748962,
            0.04930876,
            -0.03594442,
            0.00057059154,
            0.051412497,
            -0.032752078,
            -0.013354455,
            0.010314953,
            0.028071582,
            -0.007979455,
            0.019962462,
            0.022271222,
            0.002891597,
            0.044891275,
            -0.039525658,
            -0.023988793,
            0.025496462,
            -0.048769783,
            -0.056853235,
            -0.023518834,
            -0.0047672777,
            -0.009022111,
            0.018107554,
            0.008169725,
            0.0014148167,
            0.044371024,
            0.022120731,
            0.036048844,
            -0.0000674141,
            -0.030797211,
            -0.043052986,
            0.0005771518,
            0.03926334,
            0.023730814,
            -0.050356604,
            0.017832005,
            0.028652584,
            0.014901858,
            -0.0074196756,
            -0.005237745,
            -0.0015761106,
            0.04686528,
            0.019759068,
            0.066749424,
            0.010569954,
            -0.050072946,
            0.03929833,
            -0.008528363,
            -0.04975793,
            0.03201639,
            0.030161383,
            0.01601348,
            0.03532772,
            -0.04341766,
            -0.03210939,
            0.026112461,
            -0.038308628,
            0.040379606,
            -0.032760948,
            0.017515402,
            0.04124708,
            0.047899082,
            0.0016272528,
            -0.015729005,
            -0.009105747,
            -0.007177475,
            -0.027380819,
            -0.025521407,
            -0.043774713,
            -0.009276869,
            0.04472924,
            0.025409846,
            0.030898968,
            0.036536876,
            -0.0010531509,
            0.026924403,
            0.0018503459,
            -0.03915232,
            0.040953662,
            0.038074277,
            -0.026333777,
            -0.04450273,
            0.031343397,
            -0.030638468,
            0.002355758,
            -0.004019577,
            -0.026043463,
            -0.026513543,
            0.032308232,
            0.0038357638,
            -0.039910015,
            -0.039163902,
            0.037314672,
            -0.051712196,
            0.037154227,
            0.03388809,
            -0.00719853,
            -0.026009478,
            0.041905653,
            -0.05177618,
            0.0014157926,
            0.026436215,
            -0.0052977623,
            0.035158757,
            -0.025083344,
            0.00083062437,
            0.021624282
          ],
          "bias": 0.008897799,
          "output": 0.0,
          "delta": -0.0
        },
        {
          "weights": [
            0.02382594,
            -0.008315027,
            -0.029028079,
            -0.004660651,
            0.04600512,
            0.039032545,
            0.010906529,
            0.0057083517,
            0.003511995,
            0.011413369,
            -0.026540296,
            0.043795843,
            0.039137375,
            -0.027795203,
            0.04491565,
            0.03438962,
            -0.036953013,
            0.041957777,
            0.018243019,
            0.00047911704,
            0.0284977,
            -0.002418805,
            0.04206105,
            0.042629924,
            0.030574765,
            0.026796144,
            0.019000877,
            0.0132831,
            0.030243602,
            0.039990146,
            -0.00021917373,
            -0.02188989,
            -0.049082942,
            0.032330275,
            -0.0015249891,
            0.009416815,
            0.048268188,
            0.0141076315,
            -0.030325258,
            0.035010207,
            0.007303836,
            0.028366132,
            0.015073952,
            0.019474076,
            -0.041545197,
            -0.03870756,
            -0.023317128,
            0.005121135,
            -0.006771798,
            0.03474359,
            0.029140005,
            0.007912451,
            0.023312699,
            -0.04881086,
            -0.04017426,
            0.04024862,
            -0.006952204,
            -0.007464066,
            0.046058353,
            -0.0074506514,
            -0.034813236,
            -0.0092572365,
            -0.03327863,
            -0.017949047,
            0.012972414,
            0.026398562,
            -0.04058834,
            -0.006583045,
            -0.013190067,
            -0.0050873547,
            0.0028857603,
            -0.027512427,
            -0.02151333,
            -0.034565493,
            0.011447153,
            -0.04764717,
            -0.003550263,
            -0.05088148,
            0.015804093,
            -0.051558353,
            -0.045525905,
            0.017069003,
            -0.011780016,
            -0.0066977963,
            -0.02461619,
            0.038177807,
            0.015991721,
            0.012080122,
            0.022078875,
            -0.010973288,
            0.04901013,
            -0.031805437,
            -0.021214187,
            -0.029681353,
            -0.04202888,
            0.023551391,
            0.04768108,
            -0.027896281,
            0.042671654,
            0.021342263,
            0.04769998,
            -0.04903588,
            -0.04795756,
            0.022688217,
            0.029888697,
            0.0033879678,
            0.020530252,
            -0.03978309,
            0.03531962,
            0.027613841,
            0.0005566105,
            0.017250728,
            0.045182284,
            -0.017717179,
            0.017714802,
            -0.050511632,
            0.025284708,
            -0.00068591716,
            -0.015747966,
            -0.0024090258,
            -0.015766239,
            -0.039869662,
            -0.011326627,
            -0.036852665,
            -0.017400429,
            0.027475134,
            -0.04912353,
            0.0060526216,
            0.005200339,
            -0.022878315,
            0.018410832,
            -0.053212866,
            0.008159052,
            0.040429406,
            -0.0022958175,
            -0.0012778053,
            0.04081958,
            0.0012499144,
            -0.050946087,
            -0.018669032,
            0.019722473,
            -0.004502367,
            -0.028505286,
            0.0064530703,
            0.038567845,
            0.008414636,
            0.012641687,
            -0.0031277866,
            -0.02283812,
            0.034884162,
            0.027431197,
            -0.00827891,
            0.020529535,
            -0.03883047,
            -0.044681363,
            -0.03309008,
            -0.016138244,
            -0.031104548,
            0.02916349,
            0.009547395,
            -0.042766374,
            -0.048072107,
            0.041819673,
            -0.05269316,
            0.022295952,
            0.02482814,
            0.03422307,
            0.040021133,
            0.0064459667,
            0.048822742,
            0.016125524,
